metric,mean_win1,mean_win2,diff_(2-1),95%CI_(2-1)_low,95%CI_(2-1)_high,mean_win3,mean_win2_again,diff_(2-3),95%CI_(2-3)_low,95%CI_(2-3)_high,n1,n2,n3
KD_per_fight,0.40725806451612906,0.30962343096234307,-0.09763463355378599,-0.19619061859161832,0.0009213514840463455,0.4375,0.30962343096234307,-0.12787656903765693,-0.24046301671224404,-0.015290121363069814,248,239,224
sig_strikes_per_fight,91.5,94.73221757322176,3.23221757322176,-8.471889268674431,14.936324415117952,88.29910714285714,94.73221757322176,6.433110430364621,-4.9577327385246726,17.823953599253915,248,239,224
total_strikes_per_fight,126.95967741935483,136.2510460251046,9.291368605749781,-5.246666986714104,23.829404198213666,122.89285714285714,136.2510460251046,13.358188882247475,-0.5149978428948394,27.23137560738979,248,239,224
takedowns_per_fight,2.245967741935484,2.209205020920502,-0.0367627210149819,-0.4512302785196142,0.3777048364896504,1.9776785714285714,2.209205020920502,0.23152644949193069,-0.18170948879542437,0.6447623877792857,248,239,224
sub_attempts_per_fight,0.5524193548387096,0.6485355648535565,0.09611621001484683,-0.08317907616783327,0.2754114961975269,0.5089285714285714,0.6485355648535565,0.13960699342498506,-0.029233191525950025,0.3084471783759202,248,239,224
ctrl_time_min_per_fight,4.436021505376344,4.7280334728033475,0.29201196742700386,-0.4130410902559999,0.9970650251100076,4.027157738095238,4.7280334728033475,0.7008757347081094,-0.025314067490679437,1.4270655369068983,248,239,224
